#include <stdio.h>
#include "weights_q.h"

int weights_q[6][33] = {
    {2351, 7134, 4293, 1102, 1033, -840, -8753, -726, 4528, 3176, 618, -557, -1702, 3484, -12406, -5862, -2017, 554, -1042, 17491, 5457, 18323, 1777, 4821, -549, 4942, -654, -13867, -4359, -3574, -4609, -2444, -3196},
    {-99, 9516, 1312, 12370, -27999, -8136, -8414, -4123, -5315, 3453, 41, -6154, 13502, 23655, -14398, 2392, 2296, -3084, -4722, -15558, -7705, -10678, 2293, 8, -5139, -31448, -7170, 17338, -7455, -3731, -8553, -9183, 1843},
    {-1796, -8436, 324, 2025, -715, 18533, -2112, 19263, -878, -3647, -613, 14098, -1706, -6058, -1634, -425, -5580, -1375, -2554, -1119, -4656, -1391, -279, 6608, 13887, 5336, 11161, -3143, 16199, -370, -372, 2640, 16367},
    {-243, -10446, -1179, -17544, 25942, -9971, -11054, -9115, -12299, -6336, -2768, -4678, -3845, -24936, -11592, 3650, -6131, 1488, 437, -11006, -18050, -9624, -7490, -7477, -5402, 21399, -4680, -341, -5849, -4152, -5040, 3015, -13039},
    {-229, -6043, -7869, 4148, -7980, -3291, -1310, -2294, -6895, -7972, -988, -3010, -5166, -12143, 27881, -7284, 3567, 4556, -1312, -6077, 10659, -9101, -3159, -6876, -1931, -4812, -3015, -12060, -3302, 600, -5910, 587, 823},
    {-414, -1237, -574, -860, -1613, -204, 14840, -136, 7872, 2578, 4550, -137, -2427, -2354, -4014, -5072, -4544, -1293, 413, -3728, -7912, -2764, -202, -3639, -136, -1751, -204, -1794, -204, 9729, 18591, -2334, -177}
};
