#include <stdio.h>
#include "weights_q.h"

int weights_q[15][33] = {
    {-830, 5563, 6199, -266, 4178, 0, -23095, 0, -6604, -1660, -5543, 0, 0, 8590, 0, 1589, -2569, -3838, 7486, 12786, 14290, 18594, 5196, 9792, 0, 6505, 981, -9672, 0, -11735, -17449, 4778, -790},
    {5625, 6560, 14819, -13156, 11557, 0, -3392, 0, 8420, 7990, 7737, 0, 753, 17551, -30230, -2845, -9903, -1100, 5190, 16424, -1116, 23139, 9270, 8566, 0, 6245, 0, -8188, 0, -3893, 0, -4546, -675},
    {4857, 4886, 5934, 9480, -7178, 0, 0, 0, 11428, 10801, 5259, 0, 1773, 13844, 0, -12843, -3700, -1001, 1221, 18751, 26289, 21978, 11910, 3855, 0, 2721, 0, -20377, -6430, 0, 0, -1559, -4},
    {2653, 6365, 1610, -1654, 2233, -11521, -1, -8941, 6875, 4818, 3041, -6683, -202, 8787, -3128, -6039, 381, 1024, 3020, 8507, 10628, 8820, 4782, 869, -8342, 639, -6545, -7514, -10073, 0, 0, 669, -11387},
    {-534, 1365, 5874, -2601, 6837, 0, 0, 0, 8078, 3630, 1736, 0, -4857, -1332, 0, -7741, -1127, 1199, 1781, 11166, 8807, 11995, 344, 3952, 0, 1158, 0, -16624, 0, 0, 0, 1632, 0},
    {2948, -1185, 5456, 5440, 0, 0, -31512, 0, -15124, -7116, -10548, 0, 8191, 13653, 0, 11066, 1412, -3528, 664, -4507, -2696, -2, 726, 0, 1, 0, 0, 12641, 0, -18654, -29277, 2531, 3722},
    {425, 4755, 4751, 84, 0, 0, -2718, 0, 629, 333, 1, 0, 8223, 8820, -20874, 7950, -5618, -7891, 1265, 0, -13216, -1417, 1465, 0, 0, 0, 0, 13452, 0, -1038, 376, -478, -2053},
    {2087, 6650, 839, 6492, -17907, 0, 1884, 0, 4456, 1429, 1373, 0, 6938, 8214, 0, -3457, 2732, -2205, -3378, 0, 119, 0, 3616, -2, 0, -13401, 0, 4691, -2, 484, 484, -4742, 2864},
    {1920, 12228, -2200, -2336, -4673, -19795, -7, -12210, 1987, 949, 0, -11324, 2411, 7689, -4677, 6896, -396, -5380, -2867, 0, 1343, 0, 308, -7015, -15124, -4674, -11353, 7102, -16018, 297, 297, -1030, -10306},
    {-2203, -5492, 2080, 4652, 2491, 11194, -13846, 6940, -8865, -4422, -5579, 6630, 3069, -2305, 2505, 4346, 804, -3077, 678, -1856, -1858, 0, -3, 3757, 8693, 2500, 6558, -541, 9055, -5600, -11539, 732, 9056},
    {-4369, -5816, 2676, -2806, 5942, 16812, -4424, 11618, 0, 1292, 0, 6953, 1340, 0, -14285, 4180, -6095, -4393, 3280, 0, -9479, -101, 0, 7295, 9339, 4863, 9900, 7958, 12684, -101, 0, -592, 12906},
    {-3217, -5992, -1839, 8804, -8889, 19848, 0, 13190, 0, 3333, 0, 9772, 2808, -5469, 6742, -3726, -1625, 1211, -3971, 0, 0, 0, 0, 6654, 13108, 357, 9881, -3728, 13159, 0, 0, -596, 19841},
    {328, -3888, 7915, -3276, 10095, 0, -29670, 0, -16315, -8006, -11243, 0, 1346, 5467, 0, 8789, 894, -4829, 4480, -3756, -3756, 0, 0, 1528, 0, 7080, 0, 2258, 1528, -17675, -27536, 8231, -2128},
    {-908, -1852, 8596, -8826, 9923, 0, -3740, 0, 0, 0, 0, 0, 1154, 2983, -18028, 6739, -3021, -1126, 5446, 0, -13778, -1134, 0, 639, 0, 5039, 0, 9155, 639, -1134, 0, 2087, -2370},
    {-2425, -1055, -6000, 11652, 0, 0, -13090, 0, -15349, -11628, -12344, 0, 0, -3757, 22692, 5391, 6390, 7410, -4330, -4115, 12558, 2479, -1855, 0, 0, 0, 0, -11896, 0, -12364, -23798, 4491, 1698}
};
